<?xml version="1.0"?>
<opencv_storage>
<cascade>
  <stageType>BOOST</stageType>
  <featureType>HAAR</featureType>
  <height>120</height>
  <width>30</width>
  <stageParams>
    <boostType>GAB</boostType>
    <minHitRate>9.9900001287460327e-01</minHitRate>
    <maxFalseAlarm>5.0000000000000000e-01</maxFalseAlarm>
    <weightTrimRate>9.4999999999999996e-01</weightTrimRate>
    <maxDepth>1</maxDepth>
    <maxWeakCount>100</maxWeakCount></stageParams>
  <featureParams>
    <maxCatCount>0</maxCatCount>
    <featSize>1</featSize>
    <mode>ALL</mode></featureParams>
  <stageNum>12</stageNum>
  <stages>
    <!-- stage 0 -->
    <_>
      <maxWeakCount>3</maxWeakCount>
      <stageThreshold>-1.0976436138153076e+00</stageThreshold>
      <weakClassifiers>
        <_>
          <internalNodes>
            0 -1 15 -9.8838105797767639e-02</internalNodes>
          <leafValues>
            6.9696968793869019e-01 -9.7129184007644653e-01</leafValues></_>
        <_>
          <internalNodes>
            0 -1 24 -2.5592760648578405e-03</internalNodes>
          <leafValues>
            7.5330758094787598e-01 -9.3450391292572021e-01</leafValues></_>
        <_>
          <internalNodes>
            0 -1 3 -1.1734823882579803e-01</internalNodes>
          <leafValues>
            9.0541148185729980e-01 -8.6010944843292236e-01</leafValues></_></weakClassifiers></_>
    <!-- stage 1 -->
    <_>
      <maxWeakCount>3</maxWeakCount>
      <stageThreshold>-1.2496496438980103e+00</stageThreshold>
      <weakClassifiers>
        <_>
          <internalNodes>
            0 -1 8 -1.0130511969327927e-01</internalNodes>
          <leafValues>
            1. -9.3779158592224121e-01</leafValues></_>
        <_>
          <internalNodes>
            0 -1 10 3.9372149854898453e-02</internalNodes>
          <leafValues>
            -8.6194872856140137e-01 8.4752792119979858e-01</leafValues></_>
        <_>
          <internalNodes>
            0 -1 17 -1.2775515206158161e-03</internalNodes>
          <leafValues>
            5.5009067058563232e-01 -9.2844086885452271e-01</leafValues></_></weakClassifiers></_>
    <!-- stage 2 -->
    <_>
      <maxWeakCount>4</maxWeakCount>
      <stageThreshold>-1.9351592063903809e+00</stageThreshold>
      <weakClassifiers>
        <_>
          <internalNodes>
            0 -1 11 -1.3443988561630249e-01</internalNodes>
          <leafValues>
            6.6666668653488159e-01 -9.4654089212417603e-01</leafValues></_>
        <_>
          <internalNodes>
            0 -1 5 4.9286238849163055e-02</internalNodes>
          <leafValues>
            -8.4431380033493042e-01 7.7393555641174316e-01</leafValues></_>
        <_>
          <internalNodes>
            0 -1 25 -7.4569489806890488e-03</internalNodes>
          <leafValues>
            6.9756883382797241e-01 -7.4354881048202515e-01</leafValues></_>
        <_>
          <internalNodes>
            0 -1 35 -2.2448715753853321e-03</internalNodes>
          <leafValues>
            5.9924429655075073e-01 -8.2111364603042603e-01</leafValues></_></weakClassifiers></_>
    <!-- stage 3 -->
    <_>
      <maxWeakCount>3</maxWeakCount>
      <stageThreshold>-1.4858757257461548e+00</stageThreshold>
      <weakClassifiers>
        <_>
          <internalNodes>
            0 -1 12 -7.9963039606809616e-03</internalNodes>
          <leafValues>
            1. -9.2879259586334229e-01</leafValues></_>
        <_>
          <internalNodes>
            0 -1 32 -6.0939025133848190e-03</internalNodes>
          <leafValues>
            5.4590648412704468e-01 -8.7783145904541016e-01</leafValues></_>
        <_>
          <internalNodes>
            0 -1 21 -1.0569165897322819e-04</internalNodes>
          <leafValues>
            3.2074826955795288e-01 -9.7361421585083008e-01</leafValues></_></weakClassifiers></_>
    <!-- stage 4 -->
    <_>
      <maxWeakCount>4</maxWeakCount>
      <stageThreshold>-2.3961923122406006e+00</stageThreshold>
      <weakClassifiers>
        <_>
          <internalNodes>
            0 -1 30 -6.5592578612267971e-03</internalNodes>
          <leafValues>
            -1.2280701845884323e-01 -9.6019899845123291e-01</leafValues></_>
        <_>
          <internalNodes>
            0 -1 38 -1.8404850270599127e-03</internalNodes>
          <leafValues>
            1.5255767107009888e-01 -9.1151332855224609e-01</leafValues></_>
        <_>
          <internalNodes>
            0 -1 27 6.8987561389803886e-03</internalNodes>
          <leafValues>
            -8.7601578235626221e-01 3.1652837991714478e-01</leafValues></_>
        <_>
          <internalNodes>
            0 -1 19 2.8545726090669632e-03</internalNodes>
          <leafValues>
            -9.2780977487564087e-01 3.5153573751449585e-01</leafValues></_></weakClassifiers></_>
    <!-- stage 5 -->
    <_>
      <maxWeakCount>4</maxWeakCount>
      <stageThreshold>-1.7555111646652222e+00</stageThreshold>
      <weakClassifiers>
        <_>
          <internalNodes>
            0 -1 9 -1.4915576204657555e-02</internalNodes>
          <leafValues>
            7.3333334922790527e-01 -9.2558139562606812e-01</leafValues></_>
        <_>
          <internalNodes>
            0 -1 36 6.0390802100300789e-03</internalNodes>
          <leafValues>
            -8.4992754459381104e-01 3.7036830186843872e-01</leafValues></_>
        <_>
          <internalNodes>
            0 -1 16 -2.0007509738206863e-03</internalNodes>
          <leafValues>
            6.1959332227706909e-01 -6.3567221164703369e-01</leafValues></_>
        <_>
          <internalNodes>
            0 -1 0 7.3842518031597137e-03</internalNodes>
          <leafValues>
            -5.6462579965591431e-01 8.4556800127029419e-01</leafValues></_></weakClassifiers></_>
    <!-- stage 6 -->
    <_>
      <maxWeakCount>4</maxWeakCount>
      <stageThreshold>-2.0528244972229004e+00</stageThreshold>
      <weakClassifiers>
        <_>
          <internalNodes>
            0 -1 39 6.6721839830279350e-03</internalNodes>
          <leafValues>
            -9.4620251655578613e-01 4.2857143282890320e-01</leafValues></_>
        <_>
          <internalNodes>
            0 -1 33 2.1322441753000021e-03</internalNodes>
          <leafValues>
            -8.0166560411453247e-01 7.2880816459655762e-01</leafValues></_>
        <_>
          <internalNodes>
            0 -1 34 -2.4300187360495329e-03</internalNodes>
          <leafValues>
            4.7646829485893250e-01 -7.7884858846664429e-01</leafValues></_>
        <_>
          <internalNodes>
            0 -1 2 -3.2923176884651184e-02</internalNodes>
          <leafValues>
            4.7389221191406250e-01 -8.6700820922851562e-01</leafValues></_></weakClassifiers></_>
    <!-- stage 7 -->
    <_>
      <maxWeakCount>4</maxWeakCount>
      <stageThreshold>-1.8768910169601440e+00</stageThreshold>
      <weakClassifiers>
        <_>
          <internalNodes>
            0 -1 1 -8.8857479393482208e-02</internalNodes>
          <leafValues>
            1. -9.4383776187896729e-01</leafValues></_>
        <_>
          <internalNodes>
            0 -1 28 -5.6540988385677338e-02</internalNodes>
          <leafValues>
            7.3698055744171143e-01 -8.9729714393615723e-01</leafValues></_>
        <_>
          <internalNodes>
            0 -1 40 -5.5705453269183636e-04</internalNodes>
          <leafValues>
            7.5730293989181519e-01 -6.5510588884353638e-01</leafValues></_>
        <_>
          <internalNodes>
            0 -1 22 -7.4854222475551069e-05</internalNodes>
          <leafValues>
            6.1934971809387207e-01 -7.3647141456604004e-01</leafValues></_></weakClassifiers></_>
    <!-- stage 8 -->
    <_>
      <maxWeakCount>3</maxWeakCount>
      <stageThreshold>-1.0462604761123657e+00</stageThreshold>
      <weakClassifiers>
        <_>
          <internalNodes>
            0 -1 6 -2.4617561697959900e-01</internalNodes>
          <leafValues>
            8.0000001192092896e-01 -9.4062501192092896e-01</leafValues></_>
        <_>
          <internalNodes>
            0 -1 7 2.6356470584869385e-01</internalNodes>
          <leafValues>
            -8.0766284465789795e-01 8.5839110612869263e-01</leafValues></_>
        <_>
          <internalNodes>
            0 -1 29 -4.6146688982844353e-03</internalNodes>
          <leafValues>
            7.0202744007110596e-01 -7.8264600038528442e-01</leafValues></_></weakClassifiers></_>
    <!-- stage 9 -->
    <_>
      <maxWeakCount>3</maxWeakCount>
      <stageThreshold>-1.4211221933364868e+00</stageThreshold>
      <weakClassifiers>
        <_>
          <internalNodes>
            0 -1 23 -9.0500332415103912e-02</internalNodes>
          <leafValues>
            5.1724135875701904e-01 -9.5245641469955444e-01</leafValues></_>
        <_>
          <internalNodes>
            0 -1 20 5.7004876434803009e-03</internalNodes>
          <leafValues>
            -8.3092135190963745e-01 8.9931070804595947e-01</leafValues></_>
        <_>
          <internalNodes>
            0 -1 31 -1.5862463042140007e-03</internalNodes>
          <leafValues>
            3.6225560307502747e-01 -9.7464191913604736e-01</leafValues></_></weakClassifiers></_>
    <!-- stage 10 -->
    <_>
      <maxWeakCount>3</maxWeakCount>
      <stageThreshold>-1.2456334829330444e+00</stageThreshold>
      <weakClassifiers>
        <_>
          <internalNodes>
            0 -1 4 -7.6410092413425446e-02</internalNodes>
          <leafValues>
            1. -9.3779158592224121e-01</leafValues></_>
        <_>
          <internalNodes>
            0 -1 13 8.0776065587997437e-03</internalNodes>
          <leafValues>
            -8.6257177591323853e-01 9.0993028879165649e-01</leafValues></_>
        <_>
          <internalNodes>
            0 -1 26 2.1034403471276164e-04</internalNodes>
          <leafValues>
            5.5472993850708008e-01 -8.6081242561340332e-01</leafValues></_></weakClassifiers></_>
    <!-- stage 11 -->
    <_>
      <maxWeakCount>3</maxWeakCount>
      <stageThreshold>-1.3542337417602539e+00</stageThreshold>
      <weakClassifiers>
        <_>
          <internalNodes>
            0 -1 18 -4.4855568557977676e-03</internalNodes>
          <leafValues>
            1. -9.4687497615814209e-01</leafValues></_>
        <_>
          <internalNodes>
            0 -1 14 3.2615240663290024e-02</internalNodes>
          <leafValues>
            -9.1557204723358154e-01 6.2397211790084839e-01</leafValues></_>
        <_>
          <internalNodes>
            0 -1 37 -6.5503991208970547e-04</internalNodes>
          <leafValues>
            5.0821328163146973e-01 -9.2062467336654663e-01</leafValues></_></weakClassifiers></_></stages>
  <features>
    <_>
      <rects>
        <_>
          0 9 8 27 -1.</_>
        <_>
          2 9 4 27 2.</_></rects>
      <tilted>0</tilted></_>
    <_>
      <rects>
        <_>
          0 12 12 41 -1.</_>
        <_>
          6 12 6 41 2.</_></rects>
      <tilted>0</tilted></_>
    <_>
      <rects>
        <_>
          0 25 22 58 -1.</_>
        <_>
          0 54 22 29 2.</_></rects>
      <tilted>0</tilted></_>
    <_>
      <rects>
        <_>
          0 46 24 64 -1.</_>
        <_>
          8 46 8 64 3.</_></rects>
      <tilted>0</tilted></_>
    <_>
      <rects>
        <_>
          0 69 28 30 -1.</_>
        <_>
          0 84 28 15 2.</_></rects>
      <tilted>0</tilted></_>
    <_>
      <rects>
        <_>
          1 21 10 40 -1.</_>
        <_>
          6 21 5 40 2.</_></rects>
      <tilted>0</tilted></_>
    <_>
      <rects>
        <_>
          1 29 28 41 -1.</_>
        <_>
          8 29 14 41 2.</_></rects>
      <tilted>0</tilted></_>
    <_>
      <rects>
        <_>
          1 35 24 77 -1.</_>
        <_>
          13 35 12 77 2.</_></rects>
      <tilted>0</tilted></_>
    <_>
      <rects>
        <_>
          1 45 28 15 -1.</_>
        <_>
          8 45 14 15 2.</_></rects>
      <tilted>0</tilted></_>
    <_>
      <rects>
        <_>
          1 65 28 2 -1.</_>
        <_>
          8 65 14 2 2.</_></rects>
      <tilted>0</tilted></_>
    <_>
      <rects>
        <_>
          2 22 8 77 -1.</_>
        <_>
          6 22 4 77 2.</_></rects>
      <tilted>0</tilted></_>
    <_>
      <rects>
        <_>
          2 48 28 23 -1.</_>
        <_>
          9 48 14 23 2.</_></rects>
      <tilted>0</tilted></_>
    <_>
      <rects>
        <_>
          2 67 28 1 -1.</_>
        <_>
          9 67 14 1 2.</_></rects>
      <tilted>0</tilted></_>
    <_>
      <rects>
        <_>
          3 8 6 30 -1.</_>
        <_>
          3 8 3 15 2.</_>
        <_>
          6 23 3 15 2.</_></rects>
      <tilted>0</tilted></_>
    <_>
      <rects>
        <_>
          4 26 12 35 -1.</_>
        <_>
          8 26 4 35 3.</_></rects>
      <tilted>0</tilted></_>
    <_>
      <rects>
        <_>
          5 2 24 59 -1.</_>
        <_>
          13 2 8 59 3.</_></rects>
      <tilted>0</tilted></_>
    <_>
      <rects>
        <_>
          5 40 6 19 -1.</_>
        <_>
          7 40 2 19 3.</_></rects>
      <tilted>0</tilted></_>
    <_>
      <rects>
        <_>
          5 82 20 8 -1.</_>
        <_>
          5 86 20 4 2.</_></rects>
      <tilted>0</tilted></_>
    <_>
      <rects>
        <_>
          7 57 15 4 -1.</_>
        <_>
          7 57 15 2 2.</_></rects>
      <tilted>1</tilted></_>
    <_>
      <rects>
        <_>
          8 14 17 45 -1.</_>
        <_>
          8 29 17 15 3.</_></rects>
      <tilted>0</tilted></_>
    <_>
      <rects>
        <_>
          9 18 7 8 -1.</_>
        <_>
          7 20 7 4 2.</_></rects>
      <tilted>1</tilted></_>
    <_>
      <rects>
        <_>
          10 27 1 10 -1.</_>
        <_>
          10 32 1 5 2.</_></rects>
      <tilted>0</tilted></_>
    <_>
      <rects>
        <_>
          10 29 2 4 -1.</_>
        <_>
          9 30 2 2 2.</_></rects>
      <tilted>1</tilted></_>
    <_>
      <rects>
        <_>
          11 0 10 64 -1.</_>
        <_>
          11 32 10 32 2.</_></rects>
      <tilted>0</tilted></_>
    <_>
      <rects>
        <_>
          12 51 6 22 -1.</_>
        <_>
          14 51 2 22 3.</_></rects>
      <tilted>0</tilted></_>
    <_>
      <rects>
        <_>
          12 67 18 12 -1.</_>
        <_>
          12 67 9 6 2.</_>
        <_>
          21 73 9 6 2.</_></rects>
      <tilted>0</tilted></_>
    <_>
      <rects>
        <_>
          16 0 14 1 -1.</_>
        <_>
          23 0 7 1 2.</_></rects>
      <tilted>0</tilted></_>
    <_>
      <rects>
        <_>
          16 89 14 8 -1.</_>
        <_>
          23 89 7 8 2.</_></rects>
      <tilted>0</tilted></_>
    <_>
      <rects>
        <_>
          18 11 12 57 -1.</_>
        <_>
          22 30 4 19 9.</_></rects>
      <tilted>0</tilted></_>
    <_>
      <rects>
        <_>
          18 89 6 8 -1.</_>
        <_>
          18 89 6 4 2.</_></rects>
      <tilted>1</tilted></_>
    <_>
      <rects>
        <_>
          18 90 12 12 -1.</_>
        <_>
          18 90 6 6 2.</_>
        <_>
          24 96 6 6 2.</_></rects>
      <tilted>0</tilted></_>
    <_>
      <rects>
        <_>
          19 63 6 4 -1.</_>
        <_>
          19 63 3 4 2.</_></rects>
      <tilted>1</tilted></_>
    <_>
      <rects>
        <_>
          19 110 10 10 -1.</_>
        <_>
          19 115 10 5 2.</_></rects>
      <tilted>0</tilted></_>
    <_>
      <rects>
        <_>
          20 44 4 8 -1.</_>
        <_>
          22 44 2 8 2.</_></rects>
      <tilted>0</tilted></_>
    <_>
      <rects>
        <_>
          21 79 9 7 -1.</_>
        <_>
          24 82 3 7 3.</_></rects>
      <tilted>1</tilted></_>
    <_>
      <rects>
        <_>
          22 0 1 21 -1.</_>
        <_>
          15 7 1 7 3.</_></rects>
      <tilted>1</tilted></_>
    <_>
      <rects>
        <_>
          24 108 6 12 -1.</_>
        <_>
          26 112 2 4 9.</_></rects>
      <tilted>0</tilted></_>
    <_>
      <rects>
        <_>
          26 46 4 74 -1.</_>
        <_>
          26 46 2 37 2.</_>
        <_>
          28 83 2 37 2.</_></rects>
      <tilted>0</tilted></_>
    <_>
      <rects>
        <_>
          26 87 4 32 -1.</_>
        <_>
          26 87 2 16 2.</_>
        <_>
          28 103 2 16 2.</_></rects>
      <tilted>0</tilted></_>
    <_>
      <rects>
        <_>
          29 41 1 45 -1.</_>
        <_>
          29 56 1 15 3.</_></rects>
      <tilted>0</tilted></_>
    <_>
      <rects>
        <_>
          29 69 1 10 -1.</_>
        <_>
          29 74 1 5 2.</_></rects>
      <tilted>0</tilted></_></features></cascade>
</opencv_storage>
