<?xml version="1.0"?>
<opencv_storage>
<stage10>
  <maxWeakCount>5</maxWeakCount>
  <stageThreshold>-1.6629909276962280e+00</stageThreshold>
  <weakClassifiers>
    <_>
      <internalNodes>
        0 -1 19386 9.0592347085475922e-02</internalNodes>
      <leafValues>
        -8.9892804622650146e-01 6.9230771064758301e-01</leafValues></_>
    <_>
      <internalNodes>
        0 -1 611626 -2.4309844593517482e-04</internalNodes>
      <leafValues>
        3.5800057649612427e-01 -7.5944960117340088e-01</leafValues></_>
    <_>
      <internalNodes>
        0 -1 517344 -1.4147600531578064e-01</internalNodes>
      <leafValues>
        6.8613404035568237e-01 -5.1238024234771729e-01</leafValues></_>
    <_>
      <internalNodes>
        0 -1 594552 4.6939757885411382e-04</internalNodes>
      <leafValues>
        2.9554253816604614e-01 -1.</leafValues></_>
    <_>
      <internalNodes>
        0 -1 323831 -1.2944899208378047e-04</internalNodes>
      <leafValues>
        -9.7564828395843506e-01 2.1222442388534546e-01</leafValues></_></weakClassifiers></stage10>
</opencv_storage>
