<?xml version="1.0"?>
<opencv_storage>
<stage1>
  <maxWeakCount>5</maxWeakCount>
  <stageThreshold>-1.5443868637084961e+00</stageThreshold>
  <weakClassifiers>
    <_>
      <internalNodes>
        0 -1 382488 1.2809637188911438e-01</internalNodes>
      <leafValues>
        -9.0783411264419556e-01 8.6666667461395264e-01</leafValues></_>
    <_>
      <internalNodes>
        0 -1 15216 -3.2451039552688599e-01</internalNodes>
      <leafValues>
        8.2984614372253418e-01 -6.9141858816146851e-01</leafValues></_>
    <_>
      <internalNodes>
        0 -1 346225 5.4726548492908478e-02</internalNodes>
      <leafValues>
        -5.1862096786499023e-01 6.6183024644851685e-01</leafValues></_>
    <_>
      <internalNodes>
        0 -1 14023 1.0636922525009140e-05</internalNodes>
      <leafValues>
        3.3952033519744873e-01 -9.1415137052536011e-01</leafValues></_>
    <_>
      <internalNodes>
        0 -1 626614 -6.8112334702163935e-05</internalNodes>
      <leafValues>
        -9.6627736091613770e-01 2.3396641016006470e-01</leafValues></_></weakClassifiers></stage1>
</opencv_storage>
